Language model created by QuickLM on Tue Oct 17 13:31:24 EDT 2017
Copyright (c) 1996-2010 Carnegie Mellon University and Alexander I. Rudnicky

The model is in standard ARPA format, designed by Doug Paul while he was at MITRE.

The code that was used to produce this language model is available in Open Source.
Please visit http://www.speech.cs.cmu.edu/tools/ for more information

The (fixed) discount mass is 0.5. The backoffs are computed using the ratio method.
This model based on a corpus of 93 sentences and 116 words

\data\
ngram 1=116
ngram 2=220
ngram 3=153

\1-grams:
-0.8816 </s> -0.3010
-0.8816 <s> -0.2342
-2.8500 A -0.2399
-2.8500 AFTERNOON -0.2399
-2.5490 AGENDA -0.2377
-2.8500 AM -0.2992
-2.8500 ANY -0.3004
-2.5490 ARE -0.2992
-2.8500 BERLIN -0.2399
-2.8500 BOILER -0.2399
-2.1511 BUS -0.2973
-2.8500 CAN -0.2992
-2.8500 CITY -0.2399
-2.8500 COFFEE -0.3004
-2.5490 DO -0.2377
-2.8500 DOLLAR -0.2399
-2.8500 DOWNTOWN -0.2399
-2.8500 EIGHT -0.2399
-2.8500 EIGHTEEN -0.2399
-2.8500 EIGHTY -0.2399
-2.8500 ELEVEN -0.2399
-2.8500 EURO -0.2399
-2.8500 FAN -0.2399
-2.8500 FIFTEEN -0.2399
-2.8500 FIFTY -0.2399
-2.8500 FIVE -0.2399
-2.8500 FOUR -0.2399
-2.8500 FOURTEEN -0.2399
-2.8500 FOURTY -0.2399
-2.8500 FRIDAY -0.2399
-2.8500 FROM -0.3004
-2.8500 GOOD -0.3004
-2.8500 HAVE -0.3004
-2.8500 HELLO -0.2399
-2.8500 HELP -0.2399
-2.8500 HI -0.2399
-2.8500 HOT -0.2992
-2.3729 HOW -0.2973
-2.8500 HUNDRED -0.2399
-2.3729 I -0.2385
-2.8500 IN -0.2399
-2.3729 IS -0.2967
-2.5490 IT -0.2399
-2.8500 KRISTIANSAND -0.2399
-2.5490 KRONER -0.2399
-2.8500 LIGHTS -0.2399
-2.8500 LIKE -0.2399
-2.8500 LONDON -0.2399
-2.8500 MAKER -0.2399
-2.5490 ME -0.2973
-2.8500 MEETINGS -0.2992
-2.8500 MONDAY -0.2399
-2.8500 MORNING -0.2399
-2.5490 MUSIC -0.2392
-2.1511 MY -0.2377
-2.8500 NEW -0.3004
-2.8500 NEWS -0.2399
-2.0719 NEXT -0.2955
-2.8500 NIGHT -0.2399
-2.8500 NINE -0.2399
-2.8500 NINETEEN -0.2399
-2.8500 NINETY -0.2399
-2.8500 NOK -0.2399
-2.8500 NORWEGIAN -0.2998
-2.5490 OFF -0.2949
-2.2480 ON -0.2949
-2.8500 ONE -0.2399
-2.8500 OSLO -0.2399
-2.8500 PC -0.2399
-2.5490 PLAY -0.2986
-2.8500 READ -0.2998
-2.8500 SATURDAY -0.2399
-2.8500 SCHEDULE -0.2992
-2.8500 SCHOOL -0.2399
-2.8500 SEVEN -0.2399
-2.8500 SEVENTEEN -0.2399
-2.8500 SEVENTY -0.2399
-2.8500 SIX -0.2399
-2.8500 SIXTEEN -0.2399
-2.8500 SIXTY -0.2399
-2.8500 SOME -0.2998
-2.8500 SPEAKERS -0.2399
-2.8500 SUNDAY -0.2399
-2.8500 TEN -0.2399
-2.1511 THE -0.2377
-2.8500 THIRTEEN -0.2399
-2.8500 THIRTY -0.2399
-2.8500 THREE -0.2399
-2.8500 THURSDAY -0.2399
-2.8500 TIME -0.2992
-2.0719 TO -0.2335
-2.3729 TODAY -0.2399
-2.8500 TOKYO -0.2399
-2.8500 TOMORROW -0.2399
-2.8500 TRONDHEIM -0.2399
-2.8500 TUESDAY -0.2399
-2.2480 TURN -0.2973
-2.8500 TV -0.2399
-2.8500 TWELVE -0.2399
-2.8500 TWENTY -0.2399
-2.8500 TWO -0.2399
-2.8500 U -0.2992
-2.8500 UIA -0.2399
-2.8500 UP -0.2399
-2.8500 WEATHER -0.3004
-2.8500 WEDNESDAY -0.2399
-2.8500 WEEK -0.2399
-2.8500 WEEKEND -0.2399
-2.5490 WHAT -0.2998
-2.2480 WHAT'S -0.2911
-2.3729 WHITEROSE -0.2399
-2.8500 WHITEROSE! -0.2399
-2.5490 WHO -0.2992
-2.8500 YORK -0.2399
-2.3729 YOU -0.2385
-2.8500 YOUTUBE -0.2399

\2-grams:
-2.2695 <s> AFTERNOON 0.0000
-2.2695 <s> BERLIN 0.0000
-2.2695 <s> BOILER 0.0000
-2.2695 <s> COFFEE 0.0000
-2.2695 <s> DO -0.1761
-2.2695 <s> DOLLAR 0.0000
-2.2695 <s> EIGHT 0.0000
-2.2695 <s> EIGHTEEN 0.0000
-2.2695 <s> EIGHTY 0.0000
-2.2695 <s> ELEVEN 0.0000
-2.2695 <s> EURO 0.0000
-2.2695 <s> FAN 0.0000
-2.2695 <s> FIFTEEN 0.0000
-2.2695 <s> FIFTY 0.0000
-2.2695 <s> FIVE 0.0000
-2.2695 <s> FOUR 0.0000
-2.2695 <s> FOURTEEN 0.0000
-2.2695 <s> FOURTY 0.0000
-2.2695 <s> FRIDAY 0.0000
-2.2695 <s> GOOD 0.0000
-2.2695 <s> HELLO 0.0000
-2.2695 <s> HELP 0.0000
-2.2695 <s> HI 0.0000
-1.7924 <s> HOW 0.0000
-2.2695 <s> HUNDRED 0.0000
-2.2695 <s> IN 0.0000
-2.2695 <s> KRISTIANSAND 0.0000
-2.2695 <s> KRONER 0.0000
-2.2695 <s> LIGHTS 0.0000
-2.2695 <s> LONDON 0.0000
-2.2695 <s> MONDAY 0.0000
-2.2695 <s> NEW 0.0000
-1.5705 <s> NEXT -0.0669
-2.2695 <s> NIGHT 0.0000
-2.2695 <s> NINE 0.0000
-2.2695 <s> NINETEEN 0.0000
-2.2695 <s> NINETY 0.0000
-2.2695 <s> NOK 0.0000
-2.2695 <s> NORWEGIAN 0.0000
-2.2695 <s> ONE 0.0000
-2.2695 <s> OSLO 0.0000
-2.2695 <s> PC 0.0000
-1.9685 <s> PLAY 0.0000
-2.2695 <s> READ 0.0000
-2.2695 <s> SATURDAY 0.0000
-2.2695 <s> SEVEN 0.0000
-2.2695 <s> SEVENTEEN 0.0000
-2.2695 <s> SEVENTY 0.0000
-2.2695 <s> SIX 0.0000
-2.2695 <s> SIXTEEN 0.0000
-2.2695 <s> SIXTY 0.0000
-2.2695 <s> SPEAKERS 0.0000
-2.2695 <s> SUNDAY 0.0000
-2.2695 <s> TEN 0.0000
-2.2695 <s> THIRTEEN 0.0000
-2.2695 <s> THIRTY 0.0000
-2.2695 <s> THREE 0.0000
-2.2695 <s> THURSDAY 0.0000
-2.2695 <s> TO -0.2632
-2.2695 <s> TOKYO 0.0000
-2.2695 <s> TOMORROW 0.0000
-2.2695 <s> TRONDHEIM 0.0000
-2.2695 <s> TUESDAY 0.0000
-1.6675 <s> TURN 0.0000
-2.2695 <s> TV 0.0000
-2.2695 <s> TWELVE 0.0000
-2.2695 <s> TWENTY 0.0000
-2.2695 <s> TWO 0.0000
-2.2695 <s> WEDNESDAY 0.0000
-2.2695 <s> WEEK 0.0000
-2.2695 <s> WEEKEND 0.0000
-1.9685 <s> WHAT 0.0000
-1.6675 <s> WHAT'S 0.0000
-1.7924 <s> WHITEROSE 0.0000
-2.2695 <s> WHITEROSE! 0.0000
-1.9685 <s> WHO 0.0000
-0.3010 A </s> -0.3010
-0.3010 AFTERNOON </s> -0.3010
-0.6021 AGENDA </s> -0.3010
-0.6021 AGENDA TODAY 0.0000
-0.3010 AM I -0.2218
-0.3010 ANY MEETINGS 0.0000
-0.3010 ARE YOU -0.1249
-0.3010 BERLIN </s> -0.3010
-0.3010 BOILER </s> -0.3010
-0.3010 BUS TO -0.0669
-0.3010 CAN YOU -0.2218
-0.3010 CITY </s> -0.3010
-0.3010 COFFEE MAKER 0.0000
-0.6021 DO </s> -0.3010
-0.6021 DO I -0.2218
-0.3010 DOLLAR </s> -0.3010
-0.3010 DOWNTOWN </s> -0.3010
-0.3010 EIGHT </s> -0.3010
-0.3010 EIGHTEEN </s> -0.3010
-0.3010 EIGHTY </s> -0.3010
-0.3010 ELEVEN </s> -0.3010
-0.3010 EURO </s> -0.3010
-0.3010 FAN </s> -0.3010
-0.3010 FIFTEEN </s> -0.3010
-0.3010 FIFTY </s> -0.3010
-0.3010 FIVE </s> -0.3010
-0.3010 FOUR </s> -0.3010
-0.3010 FOURTEEN </s> -0.3010
-0.3010 FOURTY </s> -0.3010
-0.3010 FRIDAY </s> -0.3010
-0.3010 FROM YOUTUBE 0.0000
-0.3010 GOOD MORNING 0.0000
-0.3010 HAVE ANY 0.0000
-0.3010 HELLO </s> -0.3010
-0.3010 HELP </s> -0.3010
-0.3010 HI </s> -0.3010
-0.3010 HOT IS -0.1249
-0.7782 HOW ARE 0.0000
-0.7782 HOW HOT 0.0000
-0.7782 HOW IS -0.2218
-0.3010 HUNDRED </s> -0.3010
-0.7782 I </s> -0.3010
-0.7782 I A 0.0000
-0.7782 I HAVE 0.0000
-0.3010 IN </s> -0.3010
-0.4771 IS IT 0.0000
-0.7782 IS MY -0.2553
-0.3010 IT </s> -0.3010
-0.3010 KRISTIANSAND </s> -0.3010
-0.3010 KRONER </s> -0.3010
-0.3010 LIGHTS </s> -0.3010
-0.3010 LIKE </s> -0.3010
-0.3010 LONDON </s> -0.3010
-0.3010 MAKER </s> -0.3010
-0.6021 ME SOME 0.0000
-0.6021 ME THE -0.2553
-0.3010 MEETINGS TODAY 0.0000
-0.3010 MONDAY </s> -0.3010
-0.3010 MORNING </s> -0.3010
-0.6021 MUSIC </s> -0.3010
-0.6021 MUSIC FROM 0.0000
-0.6990 MY </s> -0.3010
-0.6990 MY AGENDA 0.0000
-1.0000 MY SCHEDULE 0.0000
-0.3010 NEW YORK 0.0000
-0.3010 NEWS </s> -0.3010
-0.3802 NEXT BUS 0.0000
-1.0792 NEXT ON -0.0969
-0.3010 NIGHT </s> -0.3010
-0.3010 NINE </s> -0.3010
-0.3010 NINETEEN </s> -0.3010
-0.3010 NINETY </s> -0.3010
-0.3010 NOK </s> -0.3010
-0.3010 NORWEGIAN KRONER 0.0000
-0.6021 OFF MY -0.2041
-0.6021 OFF THE -0.2041
-0.4260 ON MY -0.0792
-0.9031 ON THE -0.2041
-0.3010 ONE </s> -0.3010
-0.3010 OSLO </s> -0.3010
-0.3010 PC </s> -0.3010
-0.6021 PLAY ME -0.1761
-0.6021 PLAY MUSIC -0.1761
-0.3010 READ ME -0.1761
-0.3010 SATURDAY </s> -0.3010
-0.3010 SCHEDULE TODAY 0.0000
-0.3010 SCHOOL </s> -0.3010
-0.3010 SEVEN </s> -0.3010
-0.3010 SEVENTEEN </s> -0.3010
-0.3010 SEVENTY </s> -0.3010
-0.3010 SIX </s> -0.3010
-0.3010 SIXTEEN </s> -0.3010
-0.3010 SIXTY </s> -0.3010
-0.3010 SOME MUSIC -0.1761
-0.3010 SPEAKERS </s> -0.3010
-0.3010 SUNDAY </s> -0.3010
-0.3010 TEN </s> -0.3010
-0.6990 THE </s> -0.3010
-1.0000 THE CITY 0.0000
-1.0000 THE NEWS 0.0000
-1.0000 THE WEATHER 0.0000
-0.3010 THIRTEEN </s> -0.3010
-0.3010 THIRTY </s> -0.3010
-0.3010 THREE </s> -0.3010
-0.3010 THURSDAY </s> -0.3010
-0.3010 TIME IS -0.1249
-1.0792 TO </s> -0.3010
-1.0792 TO DOWNTOWN 0.0000
-1.0792 TO SCHOOL 0.0000
-1.0792 TO THE -0.2553
-1.0792 TO U 0.0000
-1.0792 TO UIA 0.0000
-0.3010 TODAY </s> -0.3010
-0.3010 TOKYO </s> -0.3010
-0.3010 TOMORROW </s> -0.3010
-0.3010 TRONDHEIM </s> -0.3010
-0.3010 TUESDAY </s> -0.3010
-0.6021 TURN OFF 0.0000
-0.6021 TURN ON 0.0000
-0.3010 TV </s> -0.3010
-0.3010 TWELVE </s> -0.3010
-0.3010 TWENTY </s> -0.3010
-0.3010 TWO </s> -0.3010
-0.3010 U I -0.2218
-0.3010 UIA </s> -0.3010
-0.3010 UP </s> -0.3010
-0.3010 WEATHER LIKE 0.0000
-0.3010 WEDNESDAY </s> -0.3010
-0.3010 WEEK </s> -0.3010
-0.3010 WEEKEND </s> -0.3010
-0.6021 WHAT CAN 0.0000
-0.6021 WHAT TIME 0.0000
-0.9031 WHAT'S NEXT -0.2632
-0.9031 WHAT'S ON -0.0969
-0.9031 WHAT'S THE -0.2553
-0.9031 WHAT'S UP 0.0000
-0.3010 WHITEROSE </s> -0.3010
-0.3010 WHITEROSE! </s> -0.3010
-0.6021 WHO AM 0.0000
-0.6021 WHO ARE 0.0000
-0.3010 YORK </s> -0.3010
-0.4771 YOU </s> -0.3010
-0.7782 YOU DO -0.1761
-0.3010 YOUTUBE </s> -0.3010

\3-grams:
-0.3010 <s> AFTERNOON </s>
-0.3010 <s> BERLIN </s>
-0.3010 <s> BOILER </s>
-0.3010 <s> COFFEE MAKER
-0.3010 <s> DO I
-0.3010 <s> DOLLAR </s>
-0.3010 <s> EIGHT </s>
-0.3010 <s> EIGHTEEN </s>
-0.3010 <s> EIGHTY </s>
-0.3010 <s> ELEVEN </s>
-0.3010 <s> EURO </s>
-0.3010 <s> FAN </s>
-0.3010 <s> FIFTEEN </s>
-0.3010 <s> FIFTY </s>
-0.3010 <s> FIVE </s>
-0.3010 <s> FOUR </s>
-0.3010 <s> FOURTEEN </s>
-0.3010 <s> FOURTY </s>
-0.3010 <s> FRIDAY </s>
-0.3010 <s> GOOD MORNING
-0.3010 <s> HELLO </s>
-0.3010 <s> HELP </s>
-0.3010 <s> HI </s>
-0.7782 <s> HOW ARE
-0.7782 <s> HOW HOT
-0.7782 <s> HOW IS
-0.3010 <s> HUNDRED </s>
-0.3010 <s> IN </s>
-0.3010 <s> KRISTIANSAND </s>
-0.3010 <s> KRONER </s>
-0.3010 <s> LIGHTS </s>
-0.3010 <s> LONDON </s>
-0.3010 <s> MONDAY </s>
-0.3010 <s> NEW YORK
-0.3010 <s> NEXT BUS
-0.3010 <s> NIGHT </s>
-0.3010 <s> NINE </s>
-0.3010 <s> NINETEEN </s>
-0.3010 <s> NINETY </s>
-0.3010 <s> NOK </s>
-0.3010 <s> NORWEGIAN KRONER
-0.3010 <s> ONE </s>
-0.3010 <s> OSLO </s>
-0.3010 <s> PC </s>
-0.6021 <s> PLAY ME
-0.6021 <s> PLAY MUSIC
-0.3010 <s> READ ME
-0.3010 <s> SATURDAY </s>
-0.3010 <s> SEVEN </s>
-0.3010 <s> SEVENTEEN </s>
-0.3010 <s> SEVENTY </s>
-0.3010 <s> SIX </s>
-0.3010 <s> SIXTEEN </s>
-0.3010 <s> SIXTY </s>
-0.3010 <s> SPEAKERS </s>
-0.3010 <s> SUNDAY </s>
-0.3010 <s> TEN </s>
-0.3010 <s> THIRTEEN </s>
-0.3010 <s> THIRTY </s>
-0.3010 <s> THREE </s>
-0.3010 <s> THURSDAY </s>
-0.3010 <s> TO </s>
-0.3010 <s> TOKYO </s>
-0.3010 <s> TOMORROW </s>
-0.3010 <s> TRONDHEIM </s>
-0.3010 <s> TUESDAY </s>
-0.6021 <s> TURN OFF
-0.6021 <s> TURN ON
-0.3010 <s> TV </s>
-0.3010 <s> TWELVE </s>
-0.3010 <s> TWENTY </s>
-0.3010 <s> TWO </s>
-0.3010 <s> WEDNESDAY </s>
-0.3010 <s> WEEK </s>
-0.3010 <s> WEEKEND </s>
-0.6021 <s> WHAT CAN
-0.6021 <s> WHAT TIME
-0.9031 <s> WHAT'S NEXT
-0.9031 <s> WHAT'S ON
-0.9031 <s> WHAT'S THE
-0.9031 <s> WHAT'S UP
-0.3010 <s> WHITEROSE </s>
-0.3010 <s> WHITEROSE! </s>
-0.6021 <s> WHO AM
-0.6021 <s> WHO ARE
-0.3010 AGENDA TODAY </s>
-0.3010 AM I </s>
-0.3010 ANY MEETINGS TODAY
-0.3010 ARE YOU </s>
-1.0000 BUS TO DOWNTOWN
-1.0000 BUS TO SCHOOL
-1.0000 BUS TO THE
-1.0000 BUS TO U
-1.0000 BUS TO UIA
-0.3010 CAN YOU DO
-0.3010 COFFEE MAKER </s>
-0.3010 DO I HAVE
-0.3010 FROM YOUTUBE </s>
-0.3010 GOOD MORNING </s>
-0.3010 HAVE ANY MEETINGS
-0.3010 HOT IS IT
-0.3010 HOW ARE YOU
-0.3010 HOW HOT IS
-0.3010 HOW IS MY
-0.3010 I A </s>
-0.3010 I HAVE ANY
-0.3010 IS IT </s>
-0.3010 IS MY SCHEDULE
-0.3010 ME SOME MUSIC
-0.3010 ME THE NEWS
-0.3010 MEETINGS TODAY </s>
-0.3010 MUSIC FROM YOUTUBE
-0.6021 MY AGENDA </s>
-0.6021 MY AGENDA TODAY
-0.3010 MY SCHEDULE TODAY
-0.3010 NEW YORK </s>
-0.3010 NEXT BUS TO
-0.3010 NEXT ON MY
-0.3010 NORWEGIAN KRONER </s>
-0.3010 OFF MY </s>
-0.3010 OFF THE </s>
-0.7782 ON MY </s>
-0.4771 ON MY AGENDA
-0.3010 ON THE </s>
-0.3010 PLAY ME SOME
-0.3010 PLAY MUSIC </s>
-0.3010 READ ME THE
-0.3010 SCHEDULE TODAY </s>
-0.3010 SOME MUSIC FROM
-0.3010 THE CITY </s>
-0.3010 THE NEWS </s>
-0.3010 THE WEATHER LIKE
-0.3010 TIME IS IT
-0.3010 TO DOWNTOWN </s>
-0.3010 TO SCHOOL </s>
-0.3010 TO THE CITY
-0.3010 TO U I
-0.3010 TO UIA </s>
-0.6021 TURN OFF MY
-0.6021 TURN OFF THE
-0.6021 TURN ON MY
-0.6021 TURN ON THE
-0.3010 U I A
-0.3010 WEATHER LIKE </s>
-0.3010 WHAT CAN YOU
-0.3010 WHAT TIME IS
-0.3010 WHAT'S NEXT ON
-0.3010 WHAT'S ON MY
-0.3010 WHAT'S THE WEATHER
-0.3010 WHAT'S UP </s>
-0.3010 WHO AM I
-0.3010 WHO ARE YOU
-0.3010 YOU DO </s>

\end\
